MTP
version = 1.1.0
potential_name = MTP2_1
scaling = 5.408789293239544e-02
species_count = 2
potential_tag = 
radial_basis_type = RBChebyshev
	min_dist = 1.885706039239893e+00
	max_dist = 6.500000000000000e+00
	radial_basis_size = 8
	radial_funcs_count = 4
	radial_coeffs
		0-0
			{-2.437792218543838e-02, 6.185075054267673e-02, -5.836773194656256e-03, 7.044570988545679e-02, 2.137302038644014e-02, 2.296927210618441e-02, 1.034267066982216e-02, 1.724991999104331e-03}
			{-1.631452257339704e-01, 8.940646163985211e-02, -1.811810704414472e-01, 1.015762898321750e-02, -7.097859543989624e-02, -2.370739554986635e-02, -3.198806497250152e-02, -5.696172147161154e-03}
			{-2.633611111515568e-02, -6.274956488456035e-02, -4.964815345288330e-03, 4.259351117894657e-02, -2.076628184644045e-02, -3.268662890631928e-02, -4.294148940490014e-03, -2.762914994323491e-02}
			{2.969434825194505e-02, 3.401601663556365e-01, -1.463485519549831e-01, 5.008187416929740e-02, -1.263850829805855e-01, 1.944862063788727e-01, -5.588911326568159e-02, 9.518894582757786e-02}
		0-1
			{-1.174504275164927e-01, 3.007759954023504e-02, -1.222591941190144e-01, 2.199142066283468e-02, -3.361331672908746e-02, -1.880706413665841e-02, -1.739454576908785e-02, -1.341309851908763e-02}
			{-4.052626911280769e-01, 2.487229003766545e-01, -3.990304533611126e-01, 1.296644938572105e-01, -6.112356815001938e-02, -2.107353886501528e-03, -3.343090587106452e-02, -9.528359504521225e-03}
			{-9.996721080378560e-03, -4.554241041389789e-01, 1.586847676199387e-01, -1.699381582878099e-01, -6.190391196879377e-02, -9.244572023070159e-02, -1.051978565643483e-01, -7.257391000795933e-02}
			{2.371778506565654e-01, -1.342598434524921e-01, -3.389472916053184e-01, -3.426044042101922e-01, -2.054972917903286e-01, -1.102416183668058e-01, 2.963149220002150e-02, 4.341828232654458e-02}
		1-0
			{1.724345307658099e-01, 1.544177201392136e-01, 2.155877568981162e-01, 1.268628891020030e-01, 5.909749898564746e-02, 7.060718169612309e-02, 1.667860685557888e-02, 4.193144693534011e-03}
			{-2.318870266335835e-01, -1.632028751892232e-01, -2.504726008199046e-01, -1.127636480890398e-01, -4.059136709302507e-02, -5.322984895483663e-02, -3.851528168632858e-03, 5.123204344144237e-03}
			{3.114196001613672e-02, 3.540174481654786e-01, 2.245483063550003e-01, 1.564994036917911e-01, 2.406594179599680e-01, 1.050794289598058e-01, 6.498315384584827e-02, 3.044660301462805e-02}
			{2.546739831831325e-01, 2.836241241667036e-01, -2.834878067856588e-01, -1.075551772555145e-02, -1.474030417510910e-01, 2.929314124214489e-02, 4.111847102763615e-02, 7.990395497123587e-02}
		1-1
			{3.436453365306126e-01, 6.235587957768934e-01, 4.222353665044564e-01, 2.570948816740086e-01, 1.737021825987421e-01, 2.185320489965659e-01, 4.425159207080617e-02, 3.582529935361629e-02}
			{-1.734300459602879e-01, 3.157691515131082e-01, -3.773012858071934e-01, 2.390016380071302e-01, -1.528642048270459e-01, 4.786084881909927e-02, -5.692461456241878e-02, 1.306914377660847e-02}
			{-2.464405975427925e-01, 3.102803337631651e-01, -5.018570388244895e-01, -3.909017676874933e-02, -6.608073913232557e-02, 3.814167137274202e-02, -9.709868616579236e-02, -4.597175117752848e-04}
			{-2.044678290156768e-01, -9.530827064155696e-02, 1.201126857735345e-01, 2.108328923942572e-01, -3.471386701881268e-02, -1.562119727825334e-01, 1.935515334279473e-01, 2.305716845270045e-02}
alpha_moments_count = 174
alpha_index_basic_count = 81
alpha_index_basic = {{0, 0, 0, 0}, {0, 1, 0, 0}, {0, 0, 1, 0}, {0, 0, 0, 1}, {0, 2, 0, 0}, {0, 1, 1, 0}, {0, 1, 0, 1}, {0, 0, 2, 0}, {0, 0, 1, 1}, {0, 0, 0, 2}, {0, 3, 0, 0}, {0, 2, 1, 0}, {0, 2, 0, 1}, {0, 1, 2, 0}, {0, 1, 1, 1}, {0, 1, 0, 2}, {0, 0, 3, 0}, {0, 0, 2, 1}, {0, 0, 1, 2}, {0, 0, 0, 3}, {0, 4, 0, 0}, {0, 3, 1, 0}, {0, 3, 0, 1}, {0, 2, 2, 0}, {0, 2, 1, 1}, {0, 2, 0, 2}, {0, 1, 3, 0}, {0, 1, 2, 1}, {0, 1, 1, 2}, {0, 1, 0, 3}, {0, 0, 4, 0}, {0, 0, 3, 1}, {0, 0, 2, 2}, {0, 0, 1, 3}, {0, 0, 0, 4}, {0, 5, 0, 0}, {0, 4, 1, 0}, {0, 4, 0, 1}, {0, 3, 2, 0}, {0, 3, 1, 1}, {0, 3, 0, 2}, {0, 2, 3, 0}, {0, 2, 2, 1}, {0, 2, 1, 2}, {0, 2, 0, 3}, {0, 1, 4, 0}, {0, 1, 3, 1}, {0, 1, 2, 2}, {0, 1, 1, 3}, {0, 1, 0, 4}, {0, 0, 5, 0}, {0, 0, 4, 1}, {0, 0, 3, 2}, {0, 0, 2, 3}, {0, 0, 1, 4}, {0, 0, 0, 5}, {1, 0, 0, 0}, {1, 1, 0, 0}, {1, 0, 1, 0}, {1, 0, 0, 1}, {1, 2, 0, 0}, {1, 1, 1, 0}, {1, 1, 0, 1}, {1, 0, 2, 0}, {1, 0, 1, 1}, {1, 0, 0, 2}, {1, 3, 0, 0}, {1, 2, 1, 0}, {1, 2, 0, 1}, {1, 1, 2, 0}, {1, 1, 1, 1}, {1, 1, 0, 2}, {1, 0, 3, 0}, {1, 0, 2, 1}, {1, 0, 1, 2}, {1, 0, 0, 3}, {2, 0, 0, 0}, {2, 1, 0, 0}, {2, 0, 1, 0}, {2, 0, 0, 1}, {3, 0, 0, 0}}
alpha_index_times_count = 348
alpha_index_times = {{0, 0, 1, 81}, {1, 1, 1, 82}, {2, 2, 1, 82}, {3, 3, 1, 82}, {1, 4, 1, 83}, {2, 5, 1, 83}, {3, 6, 1, 83}, {1, 5, 1, 84}, {2, 7, 1, 84}, {3, 8, 1, 84}, {1, 6, 1, 85}, {2, 8, 1, 85}, {3, 9, 1, 85}, {1, 10, 1, 86}, {2, 11, 1, 86}, {3, 12, 1, 86}, {1, 11, 1, 87}, {2, 13, 1, 87}, {3, 14, 1, 87}, {1, 12, 1, 88}, {2, 14, 1, 88}, {3, 15, 1, 88}, {1, 13, 1, 89}, {2, 16, 1, 89}, {3, 17, 1, 89}, {1, 14, 1, 90}, {2, 17, 1, 90}, {3, 18, 1, 90}, {1, 15, 1, 91}, {2, 18, 1, 91}, {3, 19, 1, 91}, {4, 4, 1, 92}, {5, 5, 1, 92}, {6, 6, 1, 92}, {4, 5, 1, 93}, {5, 7, 1, 93}, {6, 8, 1, 93}, {4, 6, 1, 94}, {5, 8, 1, 94}, {6, 9, 1, 94}, {5, 5, 1, 95}, {7, 7, 1, 95}, {8, 8, 1, 95}, {5, 6, 1, 96}, {7, 8, 1, 96}, {8, 9, 1, 96}, {6, 6, 1, 97}, {8, 8, 1, 97}, {9, 9, 1, 97}, {4, 4, 1, 98}, {5, 5, 2, 98}, {6, 6, 2, 98}, {7, 7, 1, 98}, {8, 8, 2, 98}, {9, 9, 1, 98}, {4, 10, 1, 99}, {5, 11, 2, 99}, {6, 12, 2, 99}, {7, 13, 1, 99}, {8, 14, 2, 99}, {9, 15, 1, 99}, {4, 11, 1, 100}, {5, 13, 2, 100}, {6, 14, 2, 100}, {7, 16, 1, 100}, {8, 17, 2, 100}, {9, 18, 1, 100}, {4, 12, 1, 101}, {5, 14, 2, 101}, {6, 15, 2, 101}, {7, 17, 1, 101}, {8, 18, 2, 101}, {9, 19, 1, 101}, {4, 20, 1, 102}, {5, 21, 2, 102}, {6, 22, 2, 102}, {7, 23, 1, 102}, {8, 24, 2, 102}, {9, 25, 1, 102}, {4, 21, 1, 103}, {5, 23, 2, 103}, {6, 24, 2, 103}, {7, 26, 1, 103}, {8, 27, 2, 103}, {9, 28, 1, 103}, {4, 22, 1, 104}, {5, 24, 2, 104}, {6, 25, 2, 104}, {7, 27, 1, 104}, {8, 28, 2, 104}, {9, 29, 1, 104}, {4, 23, 1, 105}, {5, 26, 2, 105}, {6, 27, 2, 105}, {7, 30, 1, 105}, {8, 31, 2, 105}, {9, 32, 1, 105}, {4, 24, 1, 106}, {5, 27, 2, 106}, {6, 28, 2, 106}, {7, 31, 1, 106}, {8, 32, 2, 106}, {9, 33, 1, 106}, {4, 25, 1, 107}, {5, 28, 2, 107}, {6, 29, 2, 107}, {7, 32, 1, 107}, {8, 33, 2, 107}, {9, 34, 1, 107}, {10, 10, 1, 108}, {11, 11, 2, 108}, {12, 12, 2, 108}, {13, 13, 1, 108}, {14, 14, 2, 108}, {15, 15, 1, 108}, {10, 11, 1, 109}, {11, 13, 2, 109}, {12, 14, 2, 109}, {13, 16, 1, 109}, {14, 17, 2, 109}, {15, 18, 1, 109}, {10, 12, 1, 110}, {11, 14, 2, 110}, {12, 15, 2, 110}, {13, 17, 1, 110}, {14, 18, 2, 110}, {15, 19, 1, 110}, {11, 11, 1, 111}, {13, 13, 2, 111}, {14, 14, 2, 111}, {16, 16, 1, 111}, {17, 17, 2, 111}, {18, 18, 1, 111}, {11, 12, 1, 112}, {13, 14, 2, 112}, {14, 15, 2, 112}, {16, 17, 1, 112}, {17, 18, 2, 112}, {18, 19, 1, 112}, {12, 12, 1, 113}, {14, 14, 2, 113}, {15, 15, 2, 113}, {17, 17, 1, 113}, {18, 18, 2, 113}, {19, 19, 1, 113}, {10, 10, 1, 114}, {11, 11, 3, 114}, {12, 12, 3, 114}, {13, 13, 3, 114}, {14, 14, 6, 114}, {15, 15, 3, 114}, {16, 16, 1, 114}, {17, 17, 3, 114}, {18, 18, 3, 114}, {19, 19, 1, 114}, {10, 20, 1, 115}, {11, 21, 3, 115}, {12, 22, 3, 115}, {13, 23, 3, 115}, {14, 24, 6, 115}, {15, 25, 3, 115}, {16, 26, 1, 115}, {17, 27, 3, 115}, {18, 28, 3, 115}, {19, 29, 1, 115}, {10, 21, 1, 116}, {11, 23, 3, 116}, {12, 24, 3, 116}, {13, 26, 3, 116}, {14, 27, 6, 116}, {15, 28, 3, 116}, {16, 30, 1, 116}, {17, 31, 3, 116}, {18, 32, 3, 116}, {19, 33, 1, 116}, {10, 22, 1, 117}, {11, 24, 3, 117}, {12, 25, 3, 117}, {13, 27, 3, 117}, {14, 28, 6, 117}, {15, 29, 3, 117}, {16, 31, 1, 117}, {17, 32, 3, 117}, {18, 33, 3, 117}, {19, 34, 1, 117}, {20, 20, 1, 118}, {21, 21, 4, 118}, {22, 22, 4, 118}, {23, 23, 6, 118}, {24, 24, 12, 118}, {25, 25, 6, 118}, {26, 26, 4, 118}, {27, 27, 12, 118}, {28, 28, 12, 118}, {29, 29, 4, 118}, {30, 30, 1, 118}, {31, 31, 4, 118}, {32, 32, 6, 118}, {33, 33, 4, 118}, {34, 34, 1, 118}, {35, 35, 1, 119}, {36, 36, 5, 119}, {37, 37, 5, 119}, {38, 38, 10, 119}, {39, 39, 20, 119}, {40, 40, 10, 119}, {41, 41, 10, 119}, {42, 42, 30, 119}, {43, 43, 30, 119}, {44, 44, 10, 119}, {45, 45, 5, 119}, {46, 46, 20, 119}, {47, 47, 30, 119}, {48, 48, 20, 119}, {49, 49, 5, 119}, {50, 50, 1, 119}, {51, 51, 5, 119}, {52, 52, 10, 119}, {53, 53, 10, 119}, {54, 54, 5, 119}, {55, 55, 1, 119}, {0, 56, 1, 120}, {1, 57, 1, 121}, {2, 58, 1, 121}, {3, 59, 1, 121}, {1, 60, 1, 122}, {2, 61, 1, 122}, {3, 62, 1, 122}, {1, 61, 1, 123}, {2, 63, 1, 123}, {3, 64, 1, 123}, {1, 62, 1, 124}, {2, 64, 1, 124}, {3, 65, 1, 124}, {4, 57, 1, 125}, {5, 58, 1, 125}, {6, 59, 1, 125}, {5, 57, 1, 126}, {7, 58, 1, 126}, {8, 59, 1, 126}, {6, 57, 1, 127}, {8, 58, 1, 127}, {9, 59, 1, 127}, {4, 60, 1, 128}, {5, 61, 2, 128}, {6, 62, 2, 128}, {7, 63, 1, 128}, {8, 64, 2, 128}, {9, 65, 1, 128}, {10, 66, 1, 129}, {11, 67, 3, 129}, {12, 68, 3, 129}, {13, 69, 3, 129}, {14, 70, 6, 129}, {15, 71, 3, 129}, {16, 72, 1, 129}, {17, 73, 3, 129}, {18, 74, 3, 129}, {19, 75, 1, 129}, {0, 76, 1, 130}, {1, 77, 1, 131}, {2, 78, 1, 131}, {3, 79, 1, 131}, {56, 56, 1, 132}, {57, 57, 1, 133}, {58, 58, 1, 133}, {59, 59, 1, 133}, {0, 81, 1, 134}, {0, 82, 1, 135}, {0, 98, 1, 136}, {0, 114, 1, 137}, {0, 118, 1, 138}, {1, 83, 1, 139}, {2, 84, 1, 139}, {3, 85, 1, 139}, {1, 86, 1, 140}, {2, 87, 1, 140}, {3, 88, 1, 140}, {1, 87, 1, 141}, {2, 89, 1, 141}, {3, 90, 1, 141}, {1, 88, 1, 142}, {2, 90, 1, 142}, {3, 91, 1, 142}, {1, 92, 1, 143}, {2, 93, 1, 143}, {3, 94, 1, 143}, {1, 93, 1, 144}, {2, 95, 1, 144}, {3, 96, 1, 144}, {1, 94, 1, 145}, {2, 96, 1, 145}, {3, 97, 1, 145}, {1, 99, 1, 146}, {2, 100, 1, 146}, {3, 101, 1, 146}, {1, 115, 1, 147}, {2, 116, 1, 147}, {3, 117, 1, 147}, {4, 102, 1, 148}, {5, 103, 2, 148}, {6, 104, 2, 148}, {7, 105, 1, 148}, {8, 106, 2, 148}, {9, 107, 1, 148}, {4, 92, 1, 149}, {5, 93, 2, 149}, {6, 94, 2, 149}, {7, 95, 1, 149}, {8, 96, 2, 149}, {9, 97, 1, 149}, {4, 108, 1, 150}, {5, 109, 2, 150}, {6, 110, 2, 150}, {7, 111, 1, 150}, {8, 112, 2, 150}, {9, 113, 1, 150}, {0, 120, 1, 151}, {0, 121, 1, 152}, {0, 128, 1, 153}, {1, 122, 1, 154}, {2, 123, 1, 154}, {3, 124, 1, 154}, {56, 82, 1, 155}, {1, 125, 1, 156}, {2, 126, 1, 156}, {3, 127, 1, 156}, {56, 98, 1, 157}, {0, 130, 1, 158}, {0, 132, 1, 159}, {82, 82, 1, 160}, {82, 98, 1, 161}, {0, 134, 1, 162}, {0, 135, 1, 163}, {0, 136, 1, 164}, {0, 137, 1, 165}, {0, 139, 1, 166}, {0, 146, 1, 167}, {0, 149, 1, 168}, {1, 140, 1, 169}, {2, 141, 1, 169}, {3, 142, 1, 169}, {1, 143, 1, 170}, {2, 144, 1, 170}, {3, 145, 1, 170}, {0, 151, 1, 171}, {0, 152, 1, 172}, {0, 155, 1, 173}}
alpha_scalar_moments = 52
alpha_moment_mapping = {0, 56, 76, 80, 81, 82, 98, 114, 118, 119, 120, 121, 128, 129, 130, 131, 132, 133, 134, 135, 136, 137, 138, 139, 146, 147, 148, 149, 150, 151, 152, 153, 154, 155, 156, 157, 158, 159, 162, 163, 164, 165, 166, 167, 168, 169, 160, 170, 161, 171, 172, 173}
species_coeffs = {-1.511762789293726e+00, -1.914312753761965e+00}
moment_coeffs = {-2.536254269423417e+00, 2.530377040999560e+00, -1.180760066561209e+00, -3.978444305558019e-01, 2.243227972478943e+00, -9.955246704516734e-01, -5.665848879665357e-01, 2.165217306986737e-01, 1.190859324287526e+00, -5.746528476632761e-01, -1.950660952530160e+00, -8.378745709713488e-02, 1.193898692969932e+00, 1.836103935921283e+00, -1.783536020958952e-01, -1.326975584354879e+00, 7.853513001236095e-01, 2.328439120937849e-01, -3.165518517433411e+00, -3.257598172158664e-01, 7.735685082186409e+00, 1.310213307091974e-01, -1.879176350321950e+00, 1.099112594768574e+00, 7.307100672159106e+00, -5.267234356916429e+00, 9.878600566047031e-01, -4.001410570596158e+00, -3.227418559995140e+00, 1.529777736622214e+00, 6.047695279119754e-01, -3.286059526929177e+00, -5.270665111641871e-01, -5.497388023236296e-01, 4.337621559621606e-01, 9.549736095623758e-01, 1.392109085529384e-01, 3.685205279181394e-02, 2.161559568369390e+00, 1.310357186560931e+00, -5.968351299305087e+00, 2.785800425792598e-01, 7.223639315218268e-01, -5.249521192123280e+00, 2.085125055034154e+00, 9.947886030582526e-01, 9.327948432065028e-02, -2.656839283011475e-01, -1.630655816417482e+00, -6.243066368459391e-02, 7.124202831429894e-01, -8.570606459071715e-01}